{
    "seed":1,
    "identifier":"deqn_benchmark_2ndschedule",
    "train_setup":{
        "num_episodes":1,
        "len_episodes":10000,
        "epochs_per_episode":1,
        "optimizer":"adam",
        "batch_size":1000,
        "lr":1e-06
    },
    "net_setup":{
        "num_hidden_nodes":[
            30,
            30
        ],
        "activations_hidden_nodes":[
            "relu",
            "relu"
        ]
    },
    "load_info":{
        "load_flag":true,
        "load_run_name":"deqn_benchmark",
        "load_episode":60000
    },
    "econ_params":{
        "beta":0.95,
        "sigma":0.2,
        "s":0.5,
        "y":[
            [
                0.05
            ],
            [
                0.2
            ]
        ],
        "r":1.03,
        "alb":0.0,
        "zub":1.0,
        "zlb":0.0,
        "q2":0.22,
        "q1":0.18,
        "gamma":[
            [
                0.4,
                0.6
            ],
            [
                0.1,
                0.9
            ]
        ]
    },
    "params":{
        "w0":[
            [
                0.00010790616215672344,
                0.06850723177194595,
                0.00014797013136558235,
                0.0240692887455225,
                0.03177857771515846,
                -0.000797632965259254,
                -0.00018838161486200988,
                0.06865311414003372,
                0.06813884526491165,
                0.06852667778730392,
                0.03261168301105499,
                0.0004377333971206099,
                0.031857989728450775,
                -0.0236612968146801,
                -0.0002167358179576695,
                0.026312030851840973,
                -0.00011242946493439376,
                0.06801988184452057,
                0.06814230233430862,
                0.06857946515083313,
                0.0005639974842779338,
                0.03169870376586914,
                0.000554713187739253,
                -0.000262557587120682,
                0.06868262588977814,
                0.06900481879711151,
                3.13684249704238e-05,
                0.03149233013391495,
                0.00047541980165988207,
                -0.0004097413329873234
            ],
            [
                0.00037851897650398314,
                0.1091437041759491,
                -0.00016808154759928584,
                0.03092285804450512,
                0.08990872651338577,
                -1.2327926924626809e-05,
                0.0006694333860650659,
                0.10965033620595932,
                0.10911915451288223,
                0.10950694978237152,
                0.09196491539478302,
                -0.00022978354536462575,
                0.09011951833963394,
                0.12201198935508728,
                0.00014606470358558,
                0.08678572624921799,
                0.00018760307284537703,
                0.11002493649721146,
                0.10937503725290298,
                0.10929955542087555,
                -3.2001615181798115e-05,
                0.09154877066612244,
                0.0003569658729247749,
                -3.791220706261811e-06,
                0.10983368754386902,
                0.1094479188323021,
                -0.0004524876712821424,
                0.09062053263187408,
                -0.00017221934103872627,
                -0.0002703224017750472
            ],
            [
                0.00032710476079955697,
                -0.1165589839220047,
                9.331987530458719e-05,
                -0.006680008955299854,
                0.5382053852081299,
                5.979984052828513e-05,
                0.00017131656932178885,
                -0.11656054854393005,
                -0.115851491689682,
                -0.11582626402378082,
                0.5382918119430542,
                -7.779158477205783e-05,
                0.5383362770080566,
                0.47062692046165466,
                0.0002497670066077262,
                -0.08126889169216156,
                -0.0003685784467961639,
                -0.11618543416261673,
                -0.11630034446716309,
                -0.11750686913728714,
                5.212531686993316e-05,
                0.5381166338920593,
                1.510895981482463e-05,
                0.0005049144965596497,
                -0.11652985215187073,
                -0.11605799198150635,
                0.0005106600583530962,
                0.5384301543235779,
                8.901006367523223e-05,
                0.00028070772532373667
            ],
            [
                -0.00020223965111654252,
                0.5201787948608398,
                -0.00034691632026806474,
                -0.08404069393873215,
                -0.21508044004440308,
                1.5970268577802926e-05,
                0.00017380862846039236,
                0.5188060402870178,
                0.5197394490242004,
                0.5194844007492065,
                -0.20968078076839447,
                -4.369022644823417e-05,
                -0.21397942304611206,
                -0.593355655670166,
                -0.00033277933835051954,
                0.4793567657470703,
                7.115382322808728e-05,
                0.519209623336792,
                0.5200786590576172,
                0.5192717909812927,
                0.00021828988974448293,
                -0.21275833249092102,
                -0.0004950770526193082,
                0.00025948381517082453,
                0.5197306275367737,
                0.5194699168205261,
                -0.00043879656004719436,
                -0.2116864025592804,
                0.0003552315174601972,
                -1.728704410197679e-05
            ],
            [
                0.0001185894725495018,
                -0.11830739676952362,
                -0.00032106609432958066,
                -0.007784366142004728,
                0.5389301776885986,
                -0.000163183081895113,
                -0.00030890604830347,
                -0.11754783987998962,
                -0.1177247017621994,
                -0.11709246039390564,
                0.5386577248573303,
                -2.890387577281217e-06,
                0.5394412875175476,
                0.4715104103088379,
                -0.0004186767037026584,
                -0.08289846032857895,
                8.513968350598589e-05,
                -0.11770905554294586,
                -0.11817561089992523,
                -0.11788764595985413,
                0.0003078198351431638,
                0.5396602749824524,
                -0.00016175150813069195,
                0.0003736277867574245,
                -0.11775991320610046,
                -0.11818365007638931,
                3.598242619773373e-05,
                0.5403241515159607,
                -0.00023216308909468353,
                -0.00047891191206872463
            ],
            [
                -0.0005045950529165566,
                0.43196776509284973,
                4.516181070357561e-05,
                -0.05777040496468544,
                -0.10670077800750732,
                -0.00013283472799230367,
                -0.00021588997333310544,
                0.4321427047252655,
                0.43253380060195923,
                0.43216946721076965,
                -0.10221618413925171,
                -0.0007564537809230387,
                -0.10590674728155136,
                -0.46261829137802124,
                0.00011497322702780366,
                0.4042661190032959,
                0.00018083801842294633,
                0.4327159821987152,
                0.43249040842056274,
                0.43256357312202454,
                -9.733826300362125e-05,
                -0.10442053526639938,
                -0.0002847401483450085,
                -0.0003309570311103016,
                0.43231719732284546,
                0.43209370970726013,
                5.279404285829514e-05,
                -0.1036372035741806,
                -0.0006677670171484351,
                -0.00040325699956156313
            ],
            [
                -0.00014304080104921013,
                0.08405119180679321,
                -0.0004843246133532375,
                0.01180920097976923,
                0.30663788318634033,
                1.9775716282310896e-05,
                -0.000422302313381806,
                0.08507634699344635,
                0.08525218069553375,
                0.08615613728761673,
                0.31012144684791565,
                8.404586696997285e-05,
                0.3067878186702728,
                0.27497419714927673,
                0.0004007577372249216,
                0.23151841759681702,
                -8.491415792377666e-05,
                0.08458966761827469,
                0.08504315465688705,
                0.08396672457456589,
                -0.0005238719750195742,
                0.30836859345436096,
                -0.00029860547510907054,
                -0.0009627493564039469,
                0.08551816642284393,
                0.08453509956598282,
                -0.00010412349365651608,
                0.30994072556495667,
                -0.0006525720236822963,
                0.0001956041087396443
            ],
            [
                -0.0006411137874238193,
                0.1803976595401764,
                -0.00048296237946487963,
                0.04286423325538635,
                0.14830364286899567,
                0.0001493784657213837,
                7.547207496827468e-05,
                0.18073749542236328,
                0.18105903267860413,
                0.18140457570552826,
                0.15163035690784454,
                -0.00030601094476878643,
                0.14869923889636993,
                0.1862989217042923,
                -0.0005478184320963919,
                0.17250026762485504,
                -0.0007766386261209846,
                0.18100321292877197,
                0.18110431730747223,
                0.18033595383167267,
                -0.0009911303641274571,
                0.1496567726135254,
                -0.0005993758677504957,
                -0.0007826650980859995,
                0.18038049340248108,
                0.18068252503871918,
                -0.0004874963196925819,
                0.15104073286056519,
                -0.00046791613567620516,
                -2.4044086330832215e-06
            ]
        ],
        "b0":[
            9.394464541401248e-06,
            0.21898654103279114,
            7.60134935262613e-05,
            0.04475400969386101,
            0.19400069117546082,
            -0.00011345178063493222,
            5.345366844267119e-06,
            0.2192036658525467,
            0.21943186223506927,
            0.21938401460647583,
            0.19913610816001892,
            -4.280182110960595e-05,
            0.19485002756118774,
            0.2108277827501297,
            -1.6414009223808534e-05,
            0.21495959162712097,
            1.701481050986331e-05,
            0.21924510598182678,
            0.21924661099910736,
            0.21873751282691956,
            -0.00014561665011569858,
            0.19689400494098663,
            -2.4461660359520465e-05,
            2.3926471840240993e-05,
            0.21920962631702423,
            0.21902349591255188,
            1.2810775842808653e-05,
            0.19860398769378662,
            -8.48411800689064e-05,
            7.905594429757912e-06
        ],
        "w1":[
            [
                -0.00019111487199552357,
                0.00015330837049987167,
                0.00022563181119039655,
                0.00037679390516132116,
                5.545557360164821e-05,
                0.0002366754924878478,
                8.767082181293517e-05,
                0.00014246729551814497,
                2.5360701329191215e-05,
                9.333145135315135e-05,
                0.00026249975780956447,
                1.977693864319008e-05,
                2.080911144730635e-05,
                -0.0004224361327942461,
                -0.00013526115799322724,
                -7.319197902688757e-05,
                9.222631342709064e-05,
                -0.00016023017815314233,
                -4.735631591756828e-05,
                -6.381821003742516e-05,
                -0.0002696103183552623,
                -0.00024043492157943547,
                -2.0872908862656914e-05,
                -6.089853195589967e-05,
                -8.758336480241269e-05,
                -0.00031605447293259203,
                4.195928340777755e-05,
                -0.00015670605353079736,
                -5.1742696086876094e-05,
                -9.268976282328367e-05
            ],
            [
                0.2299588918685913,
                0.19901128113269806,
                0.3090232014656067,
                0.198341965675354,
                0.20167088508605957,
                -8.999689453048632e-05,
                6.140626646811143e-05,
                9.623478399589658e-05,
                0.33324649930000305,
                0.19769954681396484,
                -0.00032314262352883816,
                0.19870761036872864,
                7.691417522437405e-06,
                0.00010499029303900898,
                0.198357954621315,
                -0.00014356884639710188,
                0.19887766242027283,
                -0.00033988169161602855,
                0.00012586210505105555,
                -0.00020371317805256695,
                0.19824232161045074,
                -0.00011014368647010997,
                0.19845649600028992,
                0.19789810478687286,
                0.1977042406797409,
                -0.0001156149446615018,
                -0.000272908597253263,
                0.1995452642440796,
                -8.590779907535762e-05,
                0.19801917672157288
            ],
            [
                -0.0001366071664961055,
                -0.0003062428440898657,
                -0.00033186026848852634,
                0.00017006720008794218,
                -6.590658449567854e-05,
                5.5292377510340884e-05,
                1.3308748748386279e-05,
                2.422509714961052e-05,
                0.00010198680683970451,
                0.0002895094803534448,
                -0.0003945409844163805,
                0.00014546586317010224,
                -0.00010472513531567529,
                -0.0002270776458317414,
                0.00017978428513742983,
                -0.00010205992293776944,
                -0.00025984359672293067,
                -4.9290265451418236e-05,
                -9.121326729655266e-05,
                -0.0001864512887550518,
                0.00013565451081376523,
                0.0001604747085366398,
                -6.189553823787719e-05,
                -0.00012910115765407681,
                0.00011576851829886436,
                -0.00019712313951458782,
                0.0003844916354864836,
                -6.353088974719867e-05,
                -0.0001953712198883295,
                -3.405443521842244e-06
            ],
            [
                0.12511275708675385,
                0.11473695933818817,
                -0.06582978367805481,
                0.11461813747882843,
                0.11222174018621445,
                0.0002988430787809193,
                -0.0001336950808763504,
                -0.0002782127703540027,
                0.16220517456531525,
                0.11197561770677567,
                -6.580457556992769e-05,
                0.11548852920532227,
                7.206416194094345e-05,
                -5.570831126533449e-05,
                0.11473241448402405,
                -6.652877345914021e-05,
                0.11419396847486496,
                1.747179703670554e-05,
                -0.00030369116575457156,
                0.0006658798665739596,
                0.11296931654214859,
                2.05141168407863e-05,
                0.11431828886270523,
                0.11175782978534698,
                0.11194124072790146,
                9.764267451828346e-05,
                0.00011870159505633637,
                0.11156302690505981,
                0.00021511997329071164,
                0.11241748183965683
            ],
            [
                -0.36539384722709656,
                -0.4612480700016022,
                0.5983513593673706,
                -0.4593520164489746,
                -0.44705259799957275,
                7.644470315426588e-05,
                0.00010515129542909563,
                -0.00015290299779735506,
                -0.12379814684391022,
                -0.45751187205314636,
                0.00020319728355389088,
                -0.4596118628978729,
                0.00019096978940069675,
                1.324707227468025e-06,
                -0.4584188759326935,
                0.0004553174367174506,
                -0.4596978724002838,
                -7.473666482837871e-05,
                0.00026190411881543696,
                0.00013354750990401953,
                -0.4578964114189148,
                -0.00010039933840744197,
                -0.4582042098045349,
                -0.457406222820282,
                -0.45655930042266846,
                0.00011195348633918911,
                4.461904245545156e-05,
                -0.45187756419181824,
                -8.050406904658303e-05,
                -0.4565947651863098
            ],
            [
                -2.0222083549015224e-05,
                3.24866377923172e-05,
                -0.0001441096974303946,
                0.0002941243292298168,
                0.00010789554653456435,
                3.5706008929992095e-05,
                -0.0003040845040231943,
                0.0003274222544860095,
                -7.150109740905464e-05,
                7.408713281620294e-05,
                0.00023258919827640057,
                -0.0001505499385530129,
                -6.399206904461607e-05,
                -0.00014031791943125427,
                1.1542105227135835e-07,
                1.0620878128975164e-05,
                -4.5856031647417694e-05,
                5.988439079374075e-05,
                0.00011970361083513126,
                -0.00019003190391231328,
                -0.0001147385046351701,
                0.00015656830510124564,
                -6.335150828817859e-05,
                -0.0004949853755533695,
                5.397416202868044e-07,
                0.000189153928658925,
                0.00012405627057887614,
                0.00014184722385834903,
                5.0011785788228735e-05,
                -0.00013072052388451993
            ],
            [
                0.00019698604592122138,
                -0.00012697196507360786,
                1.6816838979138993e-05,
                -8.216815331252292e-05,
                0.00034260470420122147,
                3.6360255762701854e-05,
                1.9630610040621832e-05,
                -0.00016691027849446982,
                0.00023117817181628197,
                0.00029530609026551247,
                -2.952906652353704e-05,
                0.000161108560860157,
                -4.200624243821949e-05,
                -1.423537923983531e-05,
                0.0002140931028407067,
                -0.00019876260193996131,
                0.00020267529180273414,
                0.00013324555766303092,
                0.00015778414672240615,
                0.00021491626102942973,
                -0.00023796482128091156,
                -8.073749631876126e-05,
                -0.00010103574459208176,
                0.0001811255351640284,
                -4.323328539612703e-05,
                8.973761578090489e-05,
                -6.49610683467472e-07,
                0.0001262034784303978,
                0.00014409281720872968,
                0.0002815174520947039
            ],
            [
                0.22983239591121674,
                0.19830866158008575,
                0.30947810411453247,
                0.19853921234607697,
                0.20130105316638947,
                -0.00010843797645065933,
                1.4493185517494567e-05,
                -3.6108973290538415e-05,
                0.3331831693649292,
                0.19776003062725067,
                9.047972707776353e-05,
                0.19832926988601685,
                -4.938176789437421e-05,
                -0.0003247241547796875,
                0.19817419350147247,
                -0.0005918150418438017,
                0.19835740327835083,
                7.438539614668116e-05,
                8.83121247170493e-05,
                1.5171563063631766e-05,
                0.19805553555488586,
                0.0001110177836380899,
                0.19789864122867584,
                0.19768427312374115,
                0.19760295748710632,
                -0.0002604957262519747,
                -6.16306861047633e-05,
                0.1991003155708313,
                -0.0001867924293037504,
                0.1977066546678543
            ],
            [
                0.22990430891513824,
                0.1985684186220169,
                0.3096865117549896,
                0.19846975803375244,
                0.20174968242645264,
                -0.00031295756343752146,
                -0.0001301398588111624,
                -0.0003406222094781697,
                0.33368349075317383,
                0.19744734466075897,
                -0.0004164093697909266,
                0.19853533804416656,
                0.00015381982666440308,
                5.804731699754484e-05,
                0.19795584678649902,
                -0.0002658342127688229,
                0.19889099895954132,
                -0.00040650914888828993,
                0.00017446449783165008,
                -7.478345651179552e-05,
                0.19815073907375336,
                -0.00017968779138755053,
                0.19852793216705322,
                0.197999969124794,
                0.19745339453220367,
                -0.00010709037451306358,
                3.598089824663475e-05,
                0.19932866096496582,
                0.0001150383468484506,
                0.19778093695640564
            ],
            [
                0.22959159314632416,
                0.19846266508102417,
                0.30982327461242676,
                0.19812077283859253,
                0.20105279982089996,
                0.00040256037027575076,
                -1.8050617654807866e-05,
                -0.00011922120029339567,
                0.33352768421173096,
                0.19761084020137787,
                -0.00010646486771292984,
                0.1982351839542389,
                3.6885809095110744e-05,
                -0.00017493500490672886,
                0.19822457432746887,
                -3.713861224241555e-05,
                0.1984364241361618,
                -0.00022508144320454448,
                6.269979348871857e-05,
                -7.60533512220718e-05,
                0.19793392717838287,
                -2.4158709493349306e-05,
                0.1981269270181656,
                0.1977817416191101,
                0.197557270526886,
                0.00040876626735553145,
                0.00017816846957430243,
                0.1994018852710724,
                0.0001533081813249737,
                0.19761039316654205
            ],
            [
                -0.3655330240726471,
                -0.4621810019016266,
                0.5985398888587952,
                -0.4607095420360565,
                -0.4477824866771698,
                -0.00011681111936923116,
                0.00021950829250272363,
                0.00022220713435672224,
                -0.12545499205589294,
                -0.4580634832382202,
                0.0002538107510190457,
                -0.46097332239151,
                -4.688599437940866e-05,
                -0.00040765461744740605,
                -0.45959049463272095,
                0.00030144257470965385,
                -0.4609764814376831,
                -7.423846545862034e-05,
                -3.91128305636812e-05,
                0.0002197309077018872,
                -0.45882710814476013,
                -6.458763527916744e-05,
                -0.45926809310913086,
                -0.45832303166389465,
                -0.45734918117523193,
                7.638579518243205e-06,
                6.270331505220383e-05,
                -0.4524291157722473,
                0.00020815814787056297,
                -0.45784875750541687
            ],
            [
                0.0004002590721938759,
                0.00018367280426900834,
                0.00034025750937871635,
                9.666955884313211e-05,
                7.307248597498983e-05,
                4.926298061036505e-05,
                -0.00019565416732802987,
                -4.0759885450825095e-05,
                0.0001453909935662523,
                5.220402272243518e-06,
                -0.0001853294379543513,
                0.00022611796157434583,
                -4.5426157157635316e-05,
                -0.00011970679042860866,
                7.808349619153887e-05,
                4.943067688145675e-05,
                -4.1572733607608825e-05,
                3.1517505703959614e-05,
                0.00012174886796856299,
                -0.00011326008825562894,
                0.0001234845258295536,
                5.685394717147574e-05,
                0.00021542681497521698,
                -0.00026058463845402,
                -0.0002190015948144719,
                0.000348465982824564,
                0.00020273347035981715,
                9.929660336638335e-06,
                3.616696267272346e-05,
                0.00018632112187333405
            ],
            [
                -0.36589834094047546,
                -0.461229532957077,
                0.5984891057014465,
                -0.4595976769924164,
                -0.44761982560157776,
                0.00035345819196663797,
                0.00019399492884986103,
                7.958571222843602e-05,
                -0.12424203008413315,
                -0.4575364589691162,
                -0.0001211187700391747,
                -0.4598722755908966,
                -9.039481665240601e-05,
                -5.742553184973076e-05,
                -0.4586830735206604,
                0.0003342950076330453,
                -0.4599127769470215,
                7.646127414773218e-06,
                -0.00035072985338047147,
                -0.0002734383742790669,
                -0.458183616399765,
                -0.00023348262766376138,
                -0.45871856808662415,
                -0.45751750469207764,
                -0.45688194036483765,
                0.00023301667533814907,
                -0.0005812085582874715,
                -0.4522704780101776,
                0.00037989954580552876,
                -0.45767757296562195
            ],
            [
                -0.7720841765403748,
                -0.8174822926521301,
                0.9871798157691956,
                -0.8296019434928894,
                -0.8154264092445374,
                3.3638883905950934e-05,
                -0.00013210428005550057,
                -1.4323729374154937e-05,
                -0.6033545136451721,
                -0.8329493999481201,
                -0.00022384425392374396,
                -0.8265519738197327,
                0.00024850465706549585,
                2.362448321946431e-05,
                -0.8331815004348755,
                -3.572269270080142e-05,
                -0.8308025002479553,
                0.00010800388554343954,
                -0.00022567612177226692,
                -0.00018446632020641118,
                -0.8368107080459595,
                -0.00026773003628477454,
                -0.8344650268554688,
                -0.8329908847808838,
                -0.8338477611541748,
                3.4425190733600175e-06,
                1.9902194253518246e-05,
                -0.81545090675354,
                -0.00031173593015410006,
                -0.8344272375106812
            ],
            [
                -0.00021413735521491617,
                -0.0002469227183610201,
                0.0002729716070462018,
                0.00013754052633885294,
                7.756583727314137e-06,
                0.00010765351908048615,
                -0.00017816416220739484,
                -2.4840226615197025e-05,
                4.1199000406777486e-05,
                0.00010600930545479059,
                0.0002469531027600169,
                6.14464734098874e-05,
                0.00016746782057452947,
                3.76124880858697e-05,
                0.00023010776203591377,
                2.5770088541321456e-05,
                9.37770601012744e-05,
                -0.00010171233589062467,
                0.00022269725741352886,
                0.00018337898654863238,
                5.5914180848049e-05,
                0.00012279102520551533,
                -9.93127396213822e-05,
                -0.0002900906838476658,
                -0.00010731421207310632,
                8.60606633068528e-06,
                -0.00041257127304561436,
                -0.0003191120340488851,
                -0.0002860065142158419,
                0.000224116156459786
            ],
            [
                0.18814925849437714,
                0.15166643261909485,
                0.3149578273296356,
                0.1518842577934265,
                0.15521559119224548,
                -0.00013311835937201977,
                -0.00028161800582893193,
                -0.00013532083539757878,
                0.30288222432136536,
                0.1513078510761261,
                0.00022390359663404524,
                0.15194857120513916,
                0.00018633835134096444,
                5.645088822348043e-05,
                0.15145887434482574,
                2.3051603420753963e-05,
                0.15203867852687836,
                8.628320210846141e-05,
                -1.815906580304727e-05,
                -8.870303281582892e-05,
                0.1515064835548401,
                0.0001720628933981061,
                0.15160425007343292,
                0.15115617215633392,
                0.15125064551830292,
                -1.936747139552608e-06,
                0.000133022345835343,
                0.15335197746753693,
                -0.0001571045577293262,
                0.15115413069725037
            ],
            [
                -0.00016711214266251773,
                0.00019107320986222476,
                -0.00012673520541284233,
                -0.00014951004413887858,
                -0.00033154102857224643,
                6.940904859220609e-05,
                -0.00029361023916862905,
                -0.00013123451208230108,
                -6.146285159047693e-05,
                -0.00031073979334905744,
                0.0001264390884898603,
                -0.00012728324509225786,
                1.5701107258792035e-05,
                5.779869024991058e-05,
                -9.671939915278926e-05,
                -0.00019153323955833912,
                0.00017585331806913018,
                0.00013932476576883346,
                -2.7163183403899893e-05,
                -6.479607691289857e-05,
                -8.308668475365266e-05,
                6.902357199578546e-06,
                -5.9759593568742275e-05,
                0.000240579349338077,
                0.00020661776943597943,
                0.00013893995492253453,
                -0.00026476458879187703,
                5.2783107094001025e-05,
                -1.7033475160133094e-05,
                0.00038761505857110023
            ],
            [
                0.2300201654434204,
                0.1982094943523407,
                0.30957210063934326,
                0.1983763426542282,
                0.201349139213562,
                -8.228387014241889e-05,
                -0.00024282655795104802,
                0.00026253980468027294,
                0.33365243673324585,
                0.19804158806800842,
                -0.00013059879711363465,
                0.19837439060211182,
                -0.00020557174866553396,
                2.4393057174165733e-05,
                0.19849196076393127,
                -0.00019715551752597094,
                0.1987043023109436,
                -0.0002654930576682091,
                -0.00011922682460863143,
                -0.00010039086919277906,
                0.19819575548171997,
                -7.960525545058772e-05,
                0.1985490769147873,
                0.1978529989719391,
                0.19741491973400116,
                7.50195249565877e-05,
                -3.530261528794654e-05,
                0.19942525029182434,
                -7.524160173488781e-05,
                0.19784921407699585
            ],
            [
                0.23062460124492645,
                0.19888357818126678,
                0.30952951312065125,
                0.19857533276081085,
                0.2012253999710083,
                -0.00035809018299914896,
                0.00013514097372535616,
                7.673828076804057e-05,
                0.33364325761795044,
                0.19805124402046204,
                0.00033836287911981344,
                0.19837434589862823,
                -0.000217913999222219,
                -0.00021713681053370237,
                0.198567196726799,
                -0.0005880579119548202,
                0.19882386922836304,
                -0.0001449214032618329,
                -0.00030182002228684723,
                0.0002539398265071213,
                0.19832749664783478,
                -0.00031331818900071084,
                0.1981932371854782,
                0.1980021446943283,
                0.1976688653230667,
                4.991054083802737e-05,
                9.108708763960749e-05,
                0.199635848402977,
                -1.013572546071373e-05,
                0.19785107672214508
            ],
            [
                0.2297852337360382,
                0.19844095408916473,
                0.30878761410713196,
                0.19857963919639587,
                0.20131640136241913,
                4.3263051338726655e-05,
                8.318544132634997e-05,
                -0.00031257676891982555,
                0.33309924602508545,
                0.19772128760814667,
                0.00012022781447740272,
                0.1984967291355133,
                -0.00012415260425768793,
                -1.2963002518517897e-05,
                0.1980731338262558,
                -0.0006100227474234998,
                0.19913336634635925,
                -0.0002444217971060425,
                8.800692012300715e-05,
                -0.00014810041466262192,
                0.19820544123649597,
                -4.170536340097897e-05,
                0.19872920215129852,
                0.19777972996234894,
                0.19764287769794464,
                -0.0002650189562700689,
                -0.00010898228356381878,
                0.19924938678741455,
                5.726455492549576e-05,
                0.1979631632566452
            ],
            [
                6.209650018718094e-05,
                0.00010239000403089449,
                -0.00018605694640427828,
                0.00015549866657238454,
                -0.00036697968607768416,
                -7.137349166441709e-05,
                0.00013849597598891705,
                -7.366896898020059e-05,
                0.00013318083074409515,
                2.422045508865267e-05,
                -2.5637618819018826e-05,
                0.00018442912551108748,
                -9.370183397550136e-05,
                0.0001928333513205871,
                -0.00014014744374435395,
                0.0001234567753272131,
                -0.00037876502028666437,
                5.189627336221747e-05,
                -0.00032381658093072474,
                -0.0002599320141598582,
                0.0001448047551093623,
                -5.1031845941906795e-05,
                6.925923662493005e-05,
                4.378113226266578e-05,
                -0.000199577581952326,
                5.552906714001438e-06,
                7.542151433881372e-05,
                -3.4987868275493383e-05,
                0.00012172317656222731,
                -9.329066961072385e-05
            ],
            [
                -0.3661938011646271,
                -0.46208274364471436,
                0.5985713601112366,
                -0.4604422152042389,
                -0.4482835829257965,
                3.341670162626542e-05,
                1.261525812878972e-05,
                -8.515627268934622e-05,
                -0.12561489641666412,
                -0.4582337737083435,
                0.00026437570340931416,
                -0.461181640625,
                -3.782764179049991e-05,
                -0.00030871760100126266,
                -0.45965099334716797,
                0.0005559930577874184,
                -0.4608409106731415,
                0.0002951569913420826,
                -0.0004119139921385795,
                -9.545317880110815e-05,
                -0.45942357182502747,
                0.000367317465133965,
                -0.45969298481941223,
                -0.4585459530353546,
                -0.457867294549942,
                0.000175072971615009,
                0.00015244135283865035,
                -0.45267540216445923,
                -0.00015160990005824715,
                -0.45790451765060425
            ],
            [
                9.347568993689492e-05,
                -0.00011013006587745622,
                2.9743852792307734e-05,
                -0.00030132581014186144,
                0.00016556867922190577,
                0.00013605460117105395,
                9.334124479210004e-05,
                -8.656278805574402e-05,
                -0.00021518499124795198,
                -9.59515236900188e-05,
                -4.981014353688806e-05,
                0.00022899260511621833,
                0.00014587822079192847,
                -0.00020861660595983267,
                0.00022016845468897372,
                -1.682203946984373e-05,
                -0.00021817837841808796,
                0.0001500506477896124,
                6.163405487313867e-05,
                0.0004873235593549907,
                3.0614870638601133e-07,
                -7.879866461735219e-05,
                0.00026058321236632764,
                0.00013521038636099547,
                -2.6809471819433384e-05,
                0.00014828212442807853,
                6.847085751360282e-05,
                -0.00032156429369933903,
                -0.0002930058690253645,
                4.8964731831802055e-05
            ],
            [
                -0.0004297663108445704,
                2.5534167434670962e-05,
                0.000316046440275386,
                3.9814342017052695e-05,
                -9.25138228922151e-05,
                -0.0003924090997315943,
                2.258532367704902e-05,
                -2.728705840127077e-05,
                0.00019073659495916218,
                -7.238308899104595e-05,
                0.00030717893969267607,
                4.746736408378638e-07,
                -0.00017023656982928514,
                6.582338392036036e-05,
                -0.00024480113643221557,
                0.0001276631373912096,
                0.0003569198015611619,
                -2.657420191098936e-05,
                -9.173384751193225e-05,
                0.00020732328994199634,
                1.804787098080851e-05,
                0.0001267079933313653,
                -5.4378644563257694e-05,
                -7.156936771934852e-05,
                9.287512511946261e-05,
                0.0003417438711039722,
                -5.931068881182e-05,
                -4.9770362238632515e-05,
                -0.000234792401897721,
                6.0915226640645415e-05
            ],
            [
                0.22992143034934998,
                0.19881069660186768,
                0.3094705045223236,
                0.19832105934619904,
                0.20142115652561188,
                4.866326707997359e-05,
                -6.503607437480241e-05,
                6.178546755108982e-05,
                0.333461731672287,
                0.19764991104602814,
                -0.000396709016058594,
                0.1986374408006668,
                0.00010183856647927314,
                -1.1184124559804332e-05,
                0.19845791161060333,
                -0.0002515485102776438,
                0.19879987835884094,
                -0.0004628840833902359,
                -0.00020607248006854206,
                -0.00012178890028735623,
                0.19818682968616486,
                0.00014426223060581833,
                0.19794704020023346,
                0.19745643436908722,
                0.1979667693376541,
                -0.00021381725673563778,
                4.668165638577193e-05,
                0.19944211840629578,
                -2.0759487597388215e-05,
                0.197774276137352
            ],
            [
                0.22999601066112518,
                0.1986154019832611,
                0.30928003787994385,
                0.19846077263355255,
                0.2012489289045334,
                -0.00020673549443017691,
                -0.0001823679922381416,
                -7.069683488225564e-05,
                0.33322587609291077,
                0.19781412184238434,
                7.855194417061284e-05,
                0.19839319586753845,
                -0.00036252985592000186,
                5.4887961596250534e-05,
                0.198260098695755,
                -0.00017188598576467484,
                0.1984170377254486,
                -4.296029146644287e-05,
                -8.100603008642793e-05,
                0.0002849790034815669,
                0.19801977276802063,
                0.00013377846335060894,
                0.1979033499956131,
                0.19754108786582947,
                0.19725798070430756,
                -0.000240901397773996,
                -0.00025431817630305886,
                0.19929532706737518,
                -0.0002736194001045078,
                0.19758866727352142
            ],
            [
                3.7975893064867705e-05,
                -1.7743981516105123e-05,
                -0.00031555668101646006,
                -0.0002864925190806389,
                0.00013589038280770183,
                -2.22568978642812e-05,
                -0.00021740401280112565,
                0.00010010528785642236,
                0.00025225162971764803,
                3.5750439565163106e-05,
                -2.087766733893659e-05,
                0.00015104432532098144,
                6.43775420030579e-05,
                0.00029084409470669925,
                -3.2037703931564465e-05,
                0.00017280782049056143,
                0.00017822848167270422,
                -0.0004709702916443348,
                0.00025189854204654694,
                -9.380536357639357e-05,
                8.601952868048102e-05,
                0.00020274425332900137,
                -0.00015500100562348962,
                0.00025889778044074774,
                0.00035256374394521117,
                -8.485095895593986e-05,
                0.000291410309728235,
                -6.441403093049303e-05,
                6.761309487046674e-05,
                0.00011230049130972475
            ],
            [
                -0.36695781350135803,
                -0.462641179561615,
                0.5987849235534668,
                -0.4612254500389099,
                -0.4489835202693939,
                -0.0001304762263316661,
                -0.0002586093614809215,
                0.00027718854835256934,
                -0.12598532438278198,
                -0.4586901366710663,
                -4.0624614484841004e-05,
                -0.4615249037742615,
                -0.00016720994608476758,
                9.077439608518034e-05,
                -0.46000105142593384,
                0.0007901936187408864,
                -0.46121957898139954,
                5.9830857935594395e-05,
                -5.952430365141481e-05,
                -9.227898408425972e-05,
                -0.45965930819511414,
                -0.0001884227094706148,
                -0.4601317048072815,
                -0.4587695896625519,
                -0.4585082530975342,
                -8.078247628873214e-05,
                0.00012906694610137492,
                -0.4533199667930603,
                6.575870793312788e-05,
                -0.45848536491394043
            ],
            [
                -0.00010232030035695061,
                0.00010747611668193713,
                0.00010829966777237132,
                0.0002520065463613719,
                0.00012958106526639313,
                -9.034487447934225e-05,
                -0.0001501040387665853,
                -7.292541704373434e-05,
                7.010583067312837e-05,
                -4.3098581954836845e-05,
                -0.00014184342580847442,
                -4.809940583072603e-05,
                -5.611819142359309e-05,
                -0.00018395186634734273,
                0.00017054415366146713,
                6.353404023684561e-05,
                0.00011834972247015685,
                -0.00035948873846791685,
                0.0004601494874805212,
                -8.477231313008815e-05,
                9.262100502382964e-05,
                0.00016683897410985082,
                0.00014715197903569788,
                -4.3265154090477154e-05,
                -1.5428338883793913e-05,
                6.558741461049067e-06,
                8.90256415004842e-05,
                -6.263384420890361e-05,
                -1.6443189451820217e-05,
                0.00011342553625581786
            ],
            [
                -0.00031912775011733174,
                0.00011263105989200994,
                5.589031206909567e-05,
                -0.00015107347280718386,
                5.339629205991514e-05,
                -0.00024189197574742138,
                5.128937482368201e-05,
                -0.00012861461436841637,
                -4.974422336090356e-05,
                0.0003660982474684715,
                1.730611802486237e-05,
                0.00011033409100491554,
                0.00013721146387979388,
                -0.00025705600273795426,
                3.6383647966431454e-05,
                0.00037377007538452744,
                -0.0001127876021200791,
                0.00010747048509074375,
                0.0002645236672833562,
                -3.468278009677306e-05,
                4.1741881432244554e-05,
                -0.0003293131885584444,
                -2.6440935471327975e-05,
                0.00021536632266361266,
                -0.00032450645812787116,
                -0.0001325909252045676,
                0.000323181418934837,
                -0.00016584972036071122,
                -0.0004635544028133154,
                -0.00011408540740376338
            ]
        ],
        "b1":[
            0.08823765814304352,
            0.038733284920454025,
            0.487376868724823,
            0.039726220071315765,
            0.04606808349490166,
            -0.0001613815693417564,
            -2.433537520118989e-05,
            -8.813092426862568e-05,
            0.24089409410953522,
            0.040530845522880554,
            -0.0002457835362292826,
            0.03952061012387276,
            -1.0404904060123954e-05,
            -2.8603957616724074e-05,
            0.03971197456121445,
            -0.000275947037152946,
            0.03960689902305603,
            -0.000352058676071465,
            -2.3750844775349833e-06,
            -2.8246352030691924e-06,
            0.04054213687777519,
            -6.820182170486078e-05,
            0.04007194563746452,
            0.04072866588830948,
            0.040073126554489136,
            -7.87931276136078e-05,
            -7.158874359447509e-05,
            0.042844776064157486,
            -6.399812718882458e-06,
            0.040240611881017685
        ],
        "w2":[
            [
                -1.8244118690490723,
                -1.622268795967102,
                0.0484146848320961
            ],
            [
                -1.6224371194839478,
                -4.467058181762695,
                0.09391539543867111
            ],
            [
                -2.797950267791748,
                8.036059379577637,
                -0.2523644268512726
            ],
            [
                -1.6464687585830688,
                -4.4416069984436035,
                0.09352809935808182
            ],
            [
                -1.6897913217544556,
                -3.9276628494262695,
                0.07840270549058914
            ],
            [
                -6.285189010668546e-05,
                0.00028729994664900005,
                -0.0001804952771635726
            ],
            [
                9.423161100130528e-05,
                -0.00016884312208276242,
                -1.6993206372717395e-05
            ],
            [
                -0.00010139559890376404,
                0.0001424637739546597,
                -0.00012985857028979808
            ],
            [
                -2.198647975921631,
                2.6977014541625977,
                0.02212047204375267
            ],
            [
                -1.6692702770233154,
                -4.363678455352783,
                0.08787426352500916
            ],
            [
                -0.0002402913523837924,
                6.088752707000822e-05,
                -0.0003135667066089809
            ],
            [
                -1.641741156578064,
                -4.441096782684326,
                0.09379974752664566
            ],
            [
                -0.00021747435675933957,
                0.00019191298633813858,
                3.337017915328033e-05
            ],
            [
                0.00019867821538355201,
                -0.00013180288078729063,
                -2.008190131164156e-05
            ],
            [
                -1.652527928352356,
                -4.436965465545654,
                0.09287568181753159
            ],
            [
                -0.0003451390075497329,
                -0.00020864691759925336,
                -0.0005067784222774208
            ],
            [
                -1.6391521692276,
                -4.484959602355957,
                0.09363431483507156
            ],
            [
                -2.8360893338685855e-05,
                0.00026916133356280625,
                7.970105070853606e-05
            ],
            [
                0.0004008201649412513,
                -0.0001525730622233823,
                -0.00022246106527745724
            ],
            [
                0.00014679113519378006,
                0.0002092983340844512,
                -0.00018531910609453917
            ],
            [
                -1.6576154232025146,
                -4.430788516998291,
                0.0908423438668251
            ],
            [
                5.45931288797874e-05,
                1.8788421584758908e-05,
                1.4629546285505057e-06
            ],
            [
                -1.658061146736145,
                -4.430121898651123,
                0.09270969033241272
            ],
            [
                -1.6690477132797241,
                -4.366118907928467,
                0.08797845989465714
            ],
            [
                -1.6678053140640259,
                -4.369746208190918,
                0.0880778506398201
            ],
            [
                0.00042565594776533544,
                0.00020260630117263645,
                0.00013037091412115842
            ],
            [
                0.0002812276652548462,
                0.00026551567134447396,
                0.0001552992034703493
            ],
            [
                -1.684414267539978,
                -4.082797527313232,
                0.08089759945869446
            ],
            [
                -0.00021892163204029202,
                7.628581806784496e-05,
                -4.1499155486235395e-05
            ],
            [
                -1.6666920185089111,
                -4.379908084869385,
                0.0884283035993576
            ]
        ],
        "b2":[
            -2.010781764984131,
            5.339517593383789,
            -0.3150337040424347
        ]
    },
    "results":{
        "cost":[
            9.10079907043837e-05
        ],
        "time":[
            0.0
        ],
        "rel_Ee":[
            [
                0.01568062778096646,
                0.01274539076257497
            ]
        ]
    }
}